<?xml version="1.0"?>
<opencv_storage>
<stage6>
  <maxWeakCount>8</maxWeakCount>
  <stageThreshold>-1.3101857900619507e+00</stageThreshold>
  <weakClassifiers>
    <_>
      <internalNodes>
        0 -1 5375 -1.6071981191635132e-01</internalNodes>
      <leafValues>
        1.9745223224163055e-01 -7.3786407709121704e-01</leafValues></_>
    <_>
      <internalNodes>
        0 -1 91349 -1.0088261961936951e-01</internalNodes>
      <leafValues>
        2.0954240858554840e-01 -4.9971452355384827e-01</leafValues></_>
    <_>
      <internalNodes>
        0 -1 67791 8.2111693918704987e-03</internalNodes>
      <leafValues>
        -2.3412586748600006e-01 5.7414430379867554e-01</leafValues></_>
    <_>
      <internalNodes>
        0 -1 69380 -1.6688522882759571e-03</internalNodes>
      <leafValues>
        5.5443137884140015e-01 -2.2381985187530518e-01</leafValues></_>
    <_>
      <internalNodes>
        0 -1 38304 -2.0245715975761414e-02</internalNodes>
      <leafValues>
        -9.6349501609802246e-01 1.4892250299453735e-01</leafValues></_>
    <_>
      <internalNodes>
        0 -1 618 -4.7523571993224323e-04</internalNodes>
      <leafValues>
        3.1089442968368530e-01 -5.0861036777496338e-01</leafValues></_>
    <_>
      <internalNodes>
        0 -1 69384 -2.2828916553407907e-03</internalNodes>
      <leafValues>
        6.5651023387908936e-01 -2.1710747480392456e-01</leafValues></_>
    <_>
      <internalNodes>
        0 -1 124959 2.0853097084909678e-03</internalNodes>
      <leafValues>
        1.8388265371322632e-01 -9.6169114112854004e-01</leafValues></_></weakClassifiers></stage6>
</opencv_storage>
