<?xml version="1.0"?>
<opencv_storage>
<stage7>
  <maxWeakCount>7</maxWeakCount>
  <stageThreshold>-1.3660714626312256e+00</stageThreshold>
  <weakClassifiers>
    <_>
      <internalNodes>
        0 -1 76311 -5.5800210684537888e-02</internalNodes>
      <leafValues>
        2.4603174626827240e-01 -7.0261943340301514e-01</leafValues></_>
    <_>
      <internalNodes>
        0 -1 91349 -1.0078950226306915e-01</internalNodes>
      <leafValues>
        2.4595166742801666e-01 -5.2662265300750732e-01</leafValues></_>
    <_>
      <internalNodes>
        0 -1 98125 2.7002915740013123e-03</internalNodes>
      <leafValues>
        -2.5050356984138489e-01 5.8007252216339111e-01</leafValues></_>
    <_>
      <internalNodes>
        0 -1 37958 1.8381893169134855e-03</internalNodes>
      <leafValues>
        1.6219630837440491e-01 -8.4814327955245972e-01</leafValues></_>
    <_>
      <internalNodes>
        0 -1 60858 7.2691068053245544e-03</internalNodes>
      <leafValues>
        -2.3287987709045410e-01 5.8337509632110596e-01</leafValues></_>
    <_>
      <internalNodes>
        0 -1 88291 1.7998778494074941e-03</internalNodes>
      <leafValues>
        -2.3863655328750610e-01 5.7185846567153931e-01</leafValues></_>
    <_>
      <internalNodes>
        0 -1 120515 2.5593363679945469e-03</internalNodes>
      <leafValues>
        -3.8750076293945312e-01 3.5626751184463501e-01</leafValues></_></weakClassifiers></stage7>
</opencv_storage>
