<?xml version="1.0"?>
<opencv_storage>
<stage9>
  <maxWeakCount>8</maxWeakCount>
  <stageThreshold>-1.1273339986801147e+00</stageThreshold>
  <weakClassifiers>
    <_>
      <internalNodes>
        0 -1 47505 -1.8521383404731750e-02</internalNodes>
      <leafValues>
        -3.3110368251800537e-01 -8.4686064720153809e-01</leafValues></_>
    <_>
      <internalNodes>
        0 -1 100252 1.1032753391191363e-03</internalNodes>
      <leafValues>
        3.2729230821132660e-02 -7.9960143566131592e-01</leafValues></_>
    <_>
      <internalNodes>
        0 -1 49049 -7.1031128754839301e-04</internalNodes>
      <leafValues>
        3.0685785412788391e-01 -3.6457076668739319e-01</leafValues></_>
    <_>
      <internalNodes>
        0 -1 27934 1.0631871223449707e-01</internalNodes>
      <leafValues>
        1.3615620136260986e-01 -8.5545170307159424e-01</leafValues></_>
    <_>
      <internalNodes>
        0 -1 74852 1.7961470410227776e-02</internalNodes>
      <leafValues>
        1.5259699523448944e-01 -7.3114609718322754e-01</leafValues></_>
    <_>
      <internalNodes>
        0 -1 77839 1.6220794059336185e-03</internalNodes>
      <leafValues>
        -3.5241734981536865e-01 3.3102616667747498e-01</leafValues></_>
    <_>
      <internalNodes>
        0 -1 52227 6.2718376284465194e-04</internalNodes>
      <leafValues>
        -2.2954739630222321e-01 5.4909360408782959e-01</leafValues></_>
    <_>
      <internalNodes>
        0 -1 124965 4.3443525210022926e-03</internalNodes>
      <leafValues>
        1.3698709011077881e-01 -1.</leafValues></_></weakClassifiers></stage9>
</opencv_storage>
