<?xml version="1.0"?>
<opencv_storage>
<stage11>
  <maxWeakCount>10</maxWeakCount>
  <stageThreshold>-1.1745221614837646e+00</stageThreshold>
  <weakClassifiers>
    <_>
      <internalNodes>
        0 -1 6714 1.4529997110366821e-01</internalNodes>
      <leafValues>
        -6.1422705650329590e-01 5.4545456171035767e-01</leafValues></_>
    <_>
      <internalNodes>
        0 -1 37939 5.3594377823174000e-04</internalNodes>
      <leafValues>
        6.2051832675933838e-02 -8.7204331159591675e-01</leafValues></_>
    <_>
      <internalNodes>
        0 -1 124869 5.6252290960401297e-04</internalNodes>
      <leafValues>
        -3.8129934668540955e-01 3.4632495045661926e-01</leafValues></_>
    <_>
      <internalNodes>
        0 -1 121692 -1.0664514265954494e-03</internalNodes>
      <leafValues>
        -8.1565380096435547e-01 1.6409189999103546e-01</leafValues></_>
    <_>
      <internalNodes>
        0 -1 123555 5.7237659348174930e-04</internalNodes>
      <leafValues>
        1.1162371188402176e-01 -9.4297158718109131e-01</leafValues></_>
    <_>
      <internalNodes>
        0 -1 293 3.0073657399043441e-04</internalNodes>
      <leafValues>
        -4.1429862380027771e-01 3.0354249477386475e-01</leafValues></_>
    <_>
      <internalNodes>
        0 -1 69856 9.2771172057837248e-04</internalNodes>
      <leafValues>
        -2.6264020800590515e-01 4.6736359596252441e-01</leafValues></_>
    <_>
      <internalNodes>
        0 -1 79643 1.8142282497137785e-03</internalNodes>
      <leafValues>
        -2.1764950454235077e-01 5.2636218070983887e-01</leafValues></_>
    <_>
      <internalNodes>
        0 -1 5915 2.3616701364517212e-02</internalNodes>
      <leafValues>
        1.4578281342983246e-01 -7.9764592647552490e-01</leafValues></_>
    <_>
      <internalNodes>
        0 -1 86273 2.5293068028986454e-03</internalNodes>
      <leafValues>
        -2.5932779908180237e-01 4.3613368272781372e-01</leafValues></_></weakClassifiers></stage11>
</opencv_storage>
