<?xml version="1.0"?>
<opencv_storage>
<stage8>
  <maxWeakCount>6</maxWeakCount>
  <stageThreshold>-1.2625839710235596e+00</stageThreshold>
  <weakClassifiers>
    <_>
      <internalNodes>
        0 -1 40877 -6.1986815929412842e-01</internalNodes>
      <leafValues>
        7.9872205853462219e-02 -7.0735651254653931e-01</leafValues></_>
    <_>
      <internalNodes>
        0 -1 14248 -2.3089781403541565e-02</internalNodes>
      <leafValues>
        -9.6385341882705688e-01 3.9622616022825241e-03</leafValues></_>
    <_>
      <internalNodes>
        0 -1 5595 -1.9557219743728638e-01</internalNodes>
      <leafValues>
        -1. 1.1740124225616455e-01</leafValues></_>
    <_>
      <internalNodes>
        0 -1 987 1.6565207624807954e-03</internalNodes>
      <leafValues>
        9.5718927681446075e-02 -8.6018258333206177e-01</leafValues></_>
    <_>
      <internalNodes>
        0 -1 124991 -1.8198902253061533e-03</internalNodes>
      <leafValues>
        -9.2350286245346069e-01 7.0551991462707520e-02</leafValues></_>
    <_>
      <internalNodes>
        0 -1 125126 7.9341325908899307e-03</internalNodes>
      <leafValues>
        1.1303967237472534e-01 -8.7631857395172119e-01</leafValues></_></weakClassifiers></stage8>
</opencv_storage>
