<?xml version="1.0"?>
<opencv_storage>
<stage12>
  <maxWeakCount>10</maxWeakCount>
  <stageThreshold>-1.2286427021026611e+00</stageThreshold>
  <weakClassifiers>
    <_>
      <internalNodes>
        0 -1 103202 6.8717747926712036e-02</internalNodes>
      <leafValues>
        -5.9229749441146851e-01 9.5454543828964233e-01</leafValues></_>
    <_>
      <internalNodes>
        0 -1 107810 1.7079615499824286e-03</internalNodes>
      <leafValues>
        -3.3780628442764282e-01 3.2362285256385803e-01</leafValues></_>
    <_>
      <internalNodes>
        0 -1 125117 2.5825365446507931e-03</internalNodes>
      <leafValues>
        1.5744850039482117e-01 -8.3889043331146240e-01</leafValues></_>
    <_>
      <internalNodes>
        0 -1 10052 -4.2711960850283504e-04</internalNodes>
      <leafValues>
        -7.4484628438949585e-01 1.5949888527393341e-01</leafValues></_>
    <_>
      <internalNodes>
        0 -1 205 6.1480086296796799e-03</internalNodes>
      <leafValues>
        9.3964017927646637e-02 -9.2707699537277222e-01</leafValues></_>
    <_>
      <internalNodes>
        0 -1 65110 -1.6371659003198147e-03</internalNodes>
      <leafValues>
        3.0528527498245239e-01 -3.4654977917671204e-01</leafValues></_>
    <_>
      <internalNodes>
        0 -1 29234 -1.5450052917003632e-02</internalNodes>
      <leafValues>
        -1. 1.2577009201049805e-01</leafValues></_>
    <_>
      <internalNodes>
        0 -1 72398 -2.0910815801471472e-03</internalNodes>
      <leafValues>
        2.2555530071258545e-01 -4.9867126345634460e-01</leafValues></_>
    <_>
      <internalNodes>
        0 -1 31859 -2.5873631238937378e-02</internalNodes>
      <leafValues>
        2.3942655324935913e-01 -4.9372303485870361e-01</leafValues></_>
    <_>
      <internalNodes>
        0 -1 76850 3.6244024522602558e-03</internalNodes>
      <leafValues>
        -1.4811143279075623e-01 7.9148983955383301e-01</leafValues></_></weakClassifiers></stage12>
</opencv_storage>
