<?xml version="1.0"?>
<opencv_storage>
<stage4>
  <maxWeakCount>5</maxWeakCount>
  <stageThreshold>-1.4376748800277710e+00</stageThreshold>
  <weakClassifiers>
    <_>
      <internalNodes>
        0 -1 76311 -5.4385721683502197e-02</internalNodes>
      <leafValues>
        6.6850829124450684e-01 -7.0927685499191284e-01</leafValues></_>
    <_>
      <internalNodes>
        0 -1 84639 -4.4558979570865631e-02</internalNodes>
      <leafValues>
        7.4607712030410767e-01 -3.3095502853393555e-01</leafValues></_>
    <_>
      <internalNodes>
        0 -1 125122 4.1102836839854717e-03</internalNodes>
      <leafValues>
        2.2980281710624695e-01 -8.5839271545410156e-01</leafValues></_>
    <_>
      <internalNodes>
        0 -1 79332 -1.8977327272295952e-02</internalNodes>
      <leafValues>
        -7.5726896524429321e-01 2.1852210164070129e-01</leafValues></_>
    <_>
      <internalNodes>
        0 -1 125048 2.4777157232165337e-03</internalNodes>
      <leafValues>
        1.3002319633960724e-01 -9.3992650508880615e-01</leafValues></_></weakClassifiers></stage4>
</opencv_storage>
