<?xml version="1.0"?>
<opencv_storage>
<stage16>
  <maxWeakCount>9</maxWeakCount>
  <stageThreshold>-1.1288464069366455e+00</stageThreshold>
  <weakClassifiers>
    <_>
      <internalNodes>
        0 -1 70259 4.4508771970868111e-03</internalNodes>
      <leafValues>
        -6.2517100572586060e-01 7.2727274894714355e-01</leafValues></_>
    <_>
      <internalNodes>
        0 -1 104683 -1.7341028433293104e-03</internalNodes>
      <leafValues>
        1.6083627939224243e-01 -6.1373078823089600e-01</leafValues></_>
    <_>
      <internalNodes>
        0 -1 3032 -7.8491978347301483e-03</internalNodes>
      <leafValues>
        5.0502550601959229e-01 -2.7267116308212280e-01</leafValues></_>
    <_>
      <internalNodes>
        0 -1 95497 -3.9092963561415672e-04</internalNodes>
      <leafValues>
        5.0619482994079590e-01 -2.5564044713973999e-01</leafValues></_>
    <_>
      <internalNodes>
        0 -1 47184 3.7924782373011112e-04</internalNodes>
      <leafValues>
        1.8402341008186340e-01 -8.4384596347808838e-01</leafValues></_>
    <_>
      <internalNodes>
        0 -1 47295 -2.2691438789479434e-04</internalNodes>
      <leafValues>
        3.9847818017005920e-01 -3.5933050513267517e-01</leafValues></_>
    <_>
      <internalNodes>
        0 -1 125178 1.7896499484777451e-03</internalNodes>
      <leafValues>
        1.7689853906631470e-01 -7.3165404796600342e-01</leafValues></_>
    <_>
      <internalNodes>
        0 -1 58446 -8.3975289016962051e-03</internalNodes>
      <leafValues>
        2.4282193183898926e-01 -5.6891107559204102e-01</leafValues></_>
    <_>
      <internalNodes>
        0 -1 27421 1.1039832606911659e-02</internalNodes>
      <leafValues>
        -2.2986957430839539e-01 7.1175223588943481e-01</leafValues></_></weakClassifiers></stage16>
</opencv_storage>
