<?xml version="1.0"?>
<opencv_storage>
<stage12>
  <maxWeakCount>9</maxWeakCount>
  <stageThreshold>-1.0971488952636719e+00</stageThreshold>
  <weakClassifiers>
    <_>
      <internalNodes>
        0 -1 60920 -1.4346851035952568e-02</internalNodes>
      <leafValues>
        5.0000000000000000e-01 -6.1149108409881592e-01</leafValues></_>
    <_>
      <internalNodes>
        0 -1 45842 2.6629976928234100e-03</internalNodes>
      <leafValues>
        -2.6805508136749268e-01 4.6698361635208130e-01</leafValues></_>
    <_>
      <internalNodes>
        0 -1 99 4.9092166591435671e-04</internalNodes>
      <leafValues>
        1.4216195046901703e-01 -7.2779953479766846e-01</leafValues></_>
    <_>
      <internalNodes>
        0 -1 48270 -9.6303317695856094e-04</internalNodes>
      <leafValues>
        2.7797523140907288e-01 -3.7803196907043457e-01</leafValues></_>
    <_>
      <internalNodes>
        0 -1 94703 1.3597565703094006e-02</internalNodes>
      <leafValues>
        1.4855921268463135e-01 -9.4411146640777588e-01</leafValues></_>
    <_>
      <internalNodes>
        0 -1 76079 -6.7769433371722698e-03</internalNodes>
      <leafValues>
        2.7784669399261475e-01 -3.8096979260444641e-01</leafValues></_>
    <_>
      <internalNodes>
        0 -1 124965 5.2439514547586441e-03</internalNodes>
      <leafValues>
        1.2085006386041641e-01 -9.5823210477828979e-01</leafValues></_>
    <_>
      <internalNodes>
        0 -1 103 5.4783240193501115e-04</internalNodes>
      <leafValues>
        9.8735041916370392e-02 -7.9396647214889526e-01</leafValues></_>
    <_>
      <internalNodes>
        0 -1 85046 1.7417283961549401e-03</internalNodes>
      <leafValues>
        -2.1043689548969269e-01 5.6287229061126709e-01</leafValues></_></weakClassifiers></stage12>
</opencv_storage>
